digraph Tree {
node [shape=box] ;
0 [label="Gender <= 0.5\ngini = 0.385\nsamples = 1940\nvalue = [1436, 504]"] ;
1 [label="Class <= 1.5\ngini = 0.482\nsamples = 450\nvalue = [182, 268]"] ;
0 -> 1 [labeldistance=2.5, labelangle=45, headlabel="True"] ;
3 [label="Age <= 37.5\ngini = 0.293\nsamples = 219\nvalue = [39, 180]"] ;
1 -> 3 ;
23 [label="Age <= 2.5\ngini = 0.208\nsamples = 127\nvalue = [15, 112]"] ;
3 -> 23 ;
33 [label="gini = 0.0\nsamples = 1\nvalue = [1, 0]"] ;
23 -> 33 ;
34 [label="gini = 0.198\nsamples = 126\nvalue = [14, 112]"] ;
23 -> 34 ;
24 [label="Class <= 0.5\ngini = 0.386\nsamples = 92\nvalue = [24, 68]"] ;
3 -> 24 ;
25 [label="Age <= 67.0\ngini = 0.294\nsamples = 67\nvalue = [12, 55]"] ;
24 -> 25 ;
37 [label="gini = 0.278\nsamples = 66\nvalue = [11, 55]"] ;
25 -> 37 ;
38 [label="gini = 0.0\nsamples = 1\nvalue = [1, 0]"] ;
25 -> 38 ;
26 [label="Age <= 45.5\ngini = 0.499\nsamples = 25\nvalue = [12, 13]"] ;
24 -> 26 ;
45 [label="gini = 0.463\nsamples = 11\nvalue = [7, 4]"] ;
26 -> 45 ;
46 [label="Age <= 51.0\ngini = 0.459\nsamples = 14\nvalue = [5, 9]"] ;
26 -> 46 ;
47 [label="gini = 0.0\nsamples = 6\nvalue = [0, 6]"] ;
46 -> 47 ;
48 [label="gini = 0.469\nsamples = 8\nvalue = [5, 3]"] ;
46 -> 48 ;
4 [label="Class <= 2.5\ngini = 0.472\nsamples = 231\nvalue = [143, 88]"] ;
1 -> 4 ;
9 [label="Age <= 27.5\ngini = 0.496\nsamples = 174\nvalue = [95, 79]"] ;
4 -> 9 ;
17 [label="Age <= 21.5\ngini = 0.5\nsamples = 121\nvalue = [59, 62]"] ;
9 -> 17 ;
19 [label="Age <= 19.5\ngini = 0.488\nsamples = 78\nvalue = [45, 33]"] ;
17 -> 19 ;
21 [label="Age <= 14.5\ngini = 0.5\nsamples = 64\nvalue = [33, 31]"] ;
19 -> 21 ;
27 [label="Age <= 5.5\ngini = 0.463\nsamples = 33\nvalue = [21, 12]"] ;
21 -> 27 ;
29 [label="Age <= 4.5\ngini = 0.494\nsamples = 18\nvalue = [8, 10]"] ;
27 -> 29 ;
35 [label="gini = 0.498\nsamples = 15\nvalue = [8, 7]"] ;
29 -> 35 ;
36 [label="gini = 0.0\nsamples = 3\nvalue = [0, 3]"] ;
29 -> 36 ;
30 [label="gini = 0.231\nsamples = 15\nvalue = [13, 2]"] ;
27 -> 30 ;
28 [label="gini = 0.475\nsamples = 31\nvalue = [12, 19]"] ;
21 -> 28 ;
22 [label="gini = 0.245\nsamples = 14\nvalue = [12, 2]"] ;
19 -> 22 ;
20 [label="gini = 0.439\nsamples = 43\nvalue = [14, 29]"] ;
17 -> 20 ;
18 [label="gini = 0.436\nsamples = 53\nvalue = [36, 17]"] ;
9 -> 18 ;
10 [label="Age <= 30.5\ngini = 0.266\nsamples = 57\nvalue = [48, 9]"] ;
4 -> 10 ;
15 [label="gini = 0.0\nsamples = 31\nvalue = [31, 0]"] ;
10 -> 15 ;
16 [label="gini = 0.453\nsamples = 26\nvalue = [17, 9]"] ;
10 -> 16 ;
2 [label="Class <= 0.5\ngini = 0.267\nsamples = 1490\nvalue = [1254, 236]"] ;
0 -> 2 [labeldistance=2.5, labelangle=-45, headlabel="False"] ;
5 [label="Age <= 48.5\ngini = 0.457\nsamples = 136\nvalue = [88, 48]"] ;
2 -> 5 ;
11 [label="Age <= 8.0\ngini = 0.491\nsamples = 104\nvalue = [59, 45]"] ;
5 -> 11 ;
39 [label="gini = 0.0\nsamples = 2\nvalue = [0, 2]"] ;
11 -> 39 ;
40 [label="gini = 0.488\nsamples = 102\nvalue = [59, 43]"] ;
11 -> 40 ;
12 [label="gini = 0.17\nsamples = 32\nvalue = [29, 3]"] ;
5 -> 12 ;
6 [label="Age <= 9.5\ngini = 0.239\nsamples = 1354\nvalue = [1166, 188]"] ;
2 -> 6 ;
7 [label="Class <= 1.5\ngini = 0.497\nsamples = 26\nvalue = [12, 14]"] ;
6 -> 7 ;
13 [label="gini = 0.0\nsamples = 7\nvalue = [0, 7]"] ;
7 -> 13 ;
14 [label="gini = 0.465\nsamples = 19\nvalue = [12, 7]"] ;
7 -> 14 ;
8 [label="Age <= 34.5\ngini = 0.228\nsamples = 1328\nvalue = [1154, 174]"] ;
6 -> 8 ;
31 [label="Age <= 19.5\ngini = 0.255\nsamples = 882\nvalue = [750, 132]"] ;
8 -> 31 ;
41 [label="Age <= 14.5\ngini = 0.156\nsamples = 117\nvalue = [107, 10]"] ;
31 -> 41 ;
43 [label="gini = 0.42\nsamples = 10\nvalue = [7, 3]"] ;
41 -> 43 ;
44 [label="gini = 0.122\nsamples = 107\nvalue = [100, 7]"] ;
41 -> 44 ;
42 [label="gini = 0.268\nsamples = 765\nvalue = [643, 122]"] ;
31 -> 42 ;
32 [label="gini = 0.171\nsamples = 446\nvalue = [404, 42]"] ;
8 -> 32 ;
}